4 128
H -0.150353 -0.575191 0.205266 -0.057716 0.39139 -0.22787 -0.409478 0.136328 -0.0506558 0.53222 0.0577071 0.0962386 -0.023677 -0.24799 -0.241479 0.0820828 0.260457 -0.116431 0.246935 0.0608536 -0.0970374 0.302476 -0.0118044 0.00852471 -0.182191 -0.0167407 -0.331365 0.37743 0.242702 0.00507116 -0.0432968 0.0020351 0.231871 0.159806 0.202391 -0.12158 -0.04388 0.368096 -0.310262 -0.199634 -0.218715 0.104544 0.303821 0.0114618 0.332059 0.139435 -0.260468 0.0060027 0.208721 0.0153761 0.31232 -0.283366 0.372406 -0.232042 0.0878724 -0.0149407 0.0142254 0.592913 -0.158968 -0.424715 0.201258 -0.208227 -0.262836 -0.215509 0.189567 -0.142209 0.182484 0.401803 0.153253 -0.0305323 -0.103209 -0.158919 0.266426 0.104384 -0.150938 -0.13947 -0.0992027 -0.186613 -0.0393488 0.375891 0.283837 -0.168333 -0.419197 0.11582 0.289287 -0.198855 -0.0360167 0.0430034 0.471571 0.140009 0.0251271 -0.296659 0.249654 0.0980026 -0.366836 0.31407 -0.18439 0.194785 -0.0246228 -0.0147036 0.0454176 0.131645 0.0154504 -0.00930561 0.228057 0.00550214 -0.524565 -0.390758 -0.0820309 -0.108129 -0.0710634 -0.492008 -0.130496 -0.111647 0.475864 -0.125879 -0.294369 -0.521082 -0.0446309 -0.390982 0.424402 0.186722 0.180983 0.254896 -0.251311 -0.13513 0.133541 -0.151588
C -0.125438 -0.498046 0.167083 -0.0465129 0.335971 -0.214368 -0.336154 0.140237 -0.047583 0.421539 0.0816855 0.0730985 -0.0256409 -0.21074 -0.167112 0.0675456 0.200623 -0.0863334 0.218463 0.069427 -0.0819415 0.256091 -0.0169019 -0.00758975 -0.14689 -0.0242438 -0.266719 0.333268 0.200333 -0.00828478 -0.0455487 -0.0156276 0.208848 0.146657 0.17097 -0.1064 -0.0358194 0.321635 -0.275316 -0.18276 -0.184066 0.0913633 0.271501 0.0149114 0.290045 0.121425 -0.226474 0.00296826 0.174419 0.0139481 0.279099 -0.248069 0.331851 -0.212843 0.0820195 -0.0157441 0.0147538 0.530251 -0.142092 -0.384193 0.190919 -0.180213 -0.237883 -0.192865 0.178138 -0.143665 0.179706 0.385249 0.133766 -0.0356778 -0.0912419 -0.14634 0.238806 0.0885487 -0.138254 -0.15093 -0.0985277 -0.173532 -0.0300938 0.372666 0.284715 -0.147437 -0.420388 0.115115 0.28535 -0.19228 -0.0410572 0.0336747 0.478972 0.131073 0.00675859 -0.30028 0.260887 0.0787104 -0.37463 0.328029 -0.177272 0.208258 -0.00733641 0.00970679 0.0384256 0.139971 0.0420565 -0.0120917 0.23893 0.0134921 -0.516253 -0.394172 -0.0781669 -0.138969 -0.0757052 -0.499117 -0.134491 -0.127597 0.459051 -0.121925 -0.275203 -0.519909 -0.0623296 -0.385127 0.416635 0.195847 0.170825 0.258273 -0.267732 -0.130948 0.125517 -0.156714
B 0.0320986 0.433031 0.00128662 -0.0898179 -0.200656 0.592873 0.0142718 -0.54667 0.288204 0.0794278 -0.483809 0.0885374 0.127417 0.221431 -0.446604 0.0855071 0.0961103 0.0143486 -0.120599 -0.325129 0.241369 -0.153694 0.0238201 0.331742 0.0789854 0.165648 -0.0917968 -0.437385 0.166893 0.0639321 0.252423 0.171033 -0.158031 -0.0204487 0.0231929 -0.0672035 -0.295635 0.137242 0.366667 0.0304368 -0.182738 -0.385094 -0.191317 -0.0587156 -0.375181 -0.0730926 0.376289 -0.0688033 0.125405 0.331996 0.199524 -0.213688 -0.00756511 -0.263864 -0.135725 0.115551 -0.30531 0.138914 -0.112137 0.0602212 -0.167868 -0.0429466 -0.182201 -0.0366953 0.297989 0.527754 -0.179199 0.159229 0.00422147 -0.16111 -0.428105 0.102185 0.427088 0.290747 -0.000307463 0.0196699 -0.156121 -0.321311 0.151665 -0.16696 -0.403371 -0.501803 0.204957 -0.0530576 0.0568911 0.14504 -0.0421344 0.432749 -0.307502 0.00843558 0.154867 0.367092 -0.226149 0.325291 0.193025 -0.298537 -0.282798 -0.546189 -0.0759988 -0.376337 0.100572 -0.155778 -0.376176 0.156837 -0.254474 -0.140115 -0.0855573 0.322277 0.0737909 0.42665 -0.147147 0.189234 -0.0733925 0.215203 0.273604 0.0736052 -0.471412 0.0297836 0.132729 -0.0678345 0.0620667 0.0196089 0.104226 0.0590589 0.405089 -0.00441264 -0.117141 0.213193
D 0.0334124 0.37675 -0.000877631 -0.0796984 -0.174459 0.531714 -0.000707437 -0.491008 0.256603 0.0751734 -0.436926 0.083689 0.11876 0.195285 -0.404608 0.072637 0.0900068 0.0121045 -0.104362 -0.302981 0.218981 -0.139227 0.021098 0.303002 0.0803422 0.15268 -0.0805793 -0.40885 0.149061 0.0508342 0.227297 0.157072 -0.152433 -0.0136801 0.0148154 -0.0547143 -0.270123 0.124493 0.348162 0.028571 -0.163495 -0.362229 -0.193215 -0.0546007 -0.362499 -0.0729562 0.35569 -0.062653 0.105969 0.318166 0.174688 -0.19452 -0.0137504 -0.247361 -0.12893 0.102029 -0.287374 0.104771 -0.104904 0.0743113 -0.16533 -0.0241379 -0.157293 -0.0312113 0.283577 0.50694 -0.175881 0.14722 -0.00630749 -0.160413 -0.407551 0.104585 0.406029 0.277898 -0.0039036 0.0225017 -0.15588 -0.303383 0.15175 -0.151999 -0.385629 -0.480082 0.199146 -0.0560886 0.0519965 0.144942 -0.0402075 0.414596 -0.293306 0.0066886 0.138787 0.355871 -0.21996 0.310717 0.180034 -0.283569 -0.272548 -0.52627 -0.0702545 -0.360011 0.0993396 -0.144733 -0.357661 0.14527 -0.245714 -0.137072 -0.085792 0.30874 0.074051 0.406198 -0.139835 0.186088 -0.0750858 0.201351 0.251843 0.0640381 -0.445792 0.0270161 0.119325 -0.0656723 0.060452 0.0241913 0.0958528 0.0567005 0.390289 -0.000898283 -0.120208 0.206011
