4 128
H 0.022954173 -0.09610479 0.12769057 -0.04808716 -0.038760822 -0.019128552 0.03414994 0.077654175 0.10443668 0.029046612 0.13542604 -0.0743504 -0.008257616 -4.4577767e-08 0.03513088 0.056285806 -0.054504834 0.00046964444 -0.044994105 -0.12069512 0.103982694 -0.040740512 -0.006727637 0.037982557 0.12411463 -0.08298607 0.07601287 0.017914128 -0.037092257 0.17137298 0.11486552 0.029029936 0.044132978 0.14834262 0.066888295 0.101584375 -0.07313779 0.1252247 0.09386452 0.007551523 -0.061484307 -0.02145006 -0.0723125 0.003413952 0.10384976 6.765877e-05 -0.0120089725 -0.048787754 -0.08649813 0.009029828 0.0055076815 0.029928142 -0.002772667 -0.052124284 0.042466328 0.08191112 0.002034818 0.0020674465 0.054400306 1.0187932e-06 0.08715245 0.00052551954 -0.0005364908 0.02077637 0.021718703 0.768642 -0.24264589 0.20907256 -0.11871893 0.08663441 -0.18307556 -0.3433734 0.3187612 -1.0644859 -0.09505784 0.013487297 -0.086143 0.23669158 0.07902167 -0.4250008 -0.6306825 0.13137451 -0.16791624 -0.43538117 0.19915606 -0.16883776 -0.4054553 0.1444907 0.17548844 -0.1631723 0.53463924 0.12409086 0.014827717 -0.156186 -0.020801231 -0.14926769 -0.60606974 0.067109264 -0.7955597 -0.05527207 -0.098153576 -0.5330145 -0.062433578 0.16522376 -0.05589819 -0.7551199 -0.12665595 0.63483286 0.038391877 -0.14196342 -0.18362074 0.73167276 0.13438001 0.86494493 0.148532 0.38982373 -0.1908468 0.056958355 -0.33683392 -0.01148002 0.08467066 -0.34780863 -0.12699619 -0.11164988 -0.14333342 -0.048025195 -0.11275288 0.31675565
C 0.022008296 -0.09539439 0.12538826 -0.048062522 -0.03988468 -0.0174752 0.032841567 0.07769088 0.113775335 0.027675427 0.13290742 -0.07595231 -0.0070921727 -2.1853712e-08 0.038773347 0.056908883 -0.0542739 0.00026561908 -0.044009443 -0.120785706 0.1099412 -0.03987997 -0.00604984 0.036034998 0.12524837 -0.08731639 0.0731263 0.016552337 -0.03864395 0.16728082 0.14076181 0.027676787 0.04331784 0.15585126 0.06801776 0.09818579 -0.08446962 0.12863442 0.09317674 0.0067554493 -0.060967524 -0.02023494 -0.05277882 0.0028824066 0.10691769 4.6636982e-05 -0.0108023975 -0.04805129 -0.0897039 0.0081478115 0.0049912385 0.030689145 -0.0025278116 -0.055665124 0.041665133 0.081618056 0.0016114975 0.0019629148 0.054192066 4.6768866e-07 0.087500274 0.00040069173 -0.00033359113 0.019578038 -0.8972252 0.51018786 -0.2824828 0.14240657 -0.20211546 0.0787403 -0.2928891 1.1358576 0.54165256 -0.18429182 -0.12363005 0.18343791 -0.11596542 0.31489807 0.32445788 -0.42910078 -0.021216307 0.148491 -0.31331655 -0.30485672 0.49600366 -0.3075484 -0.3594398 0.2579915 0.16605361 -0.19224644 0.19457886 0.30720785 0.11424933 -0.28267157 0.23055968 -0.13016975 -0.53648394 0.08781275 -0.4553738 -0.19531396 -0.16724066 0.32475883 0.13497342 0.30802664 -0.083898686 -0.2740988 0.06315241 0.04348982 0.01482029 -0.11829559 0.13320412 0.4943022 0.16318195 0.2538365 0.16730522 -0.31002578 0.07413765 -0.23628183 -0.3278388 -0.29882267 -0.23130892 -0.17516254 -0.3201253 -0.087229386 -0.234099 0.08168999 -0.2828228 0.50708073
B -0.017279726 0.08076648 -0.10824489 0.038102828 0.03086847 0.013808624 -0.026498526 -0.064080805 -0.090500005 -0.020758325 -0.12154784 0.061421163 0.0057634595 2.7409605e-08 -0.02157205 -0.045940407 0.043593552 -0.00030505654 0.035614282 0.10906537 -0.08988813 0.03176783 0.004569728 -0.0294248 -0.10709557 0.07025372 -0.063185945 -0.013024532 0.029699536 -0.15354744 -0.10621491 -0.022071883 -0.034807872 -0.13927001 -0.052624594 -0.08375358 0.06384441 -0.10776878 -0.08076474 -0.005365814 0.04982832 0.016211627 0.05449132 -0.002196554 -0.088143855 -3.8976585e-05 0.008332976 0.03873986 0.07271982 -0.006150346 -0.003673165 -0.023545371 0.00192588 0.0427363 -0.033152197 -0.068398915 -0.0012475163 -0.0015090375 -0.043482892 -6.5362536e-07 -0.072702706 -0.00033073686 0.0003377892 -0.015688794 -0.90591806 0.44362295 0.2519792 -0.078084074 0.24706715 -0.4087254 0.2663472 -0.29628536 0.55467504 -0.1665659 0.2993886 1.0550278 0.20478334 -0.014142457 -0.11394046 -0.27217007 0.14627601 0.028403739 0.08813308 -0.2786495 0.6532272 0.13149023 0.04961281 -0.22266038 -0.22304079 0.26624826 -0.06541458 -0.20306143 -0.06900579 0.26145783 -0.14461707 0.2763477 -0.22603862 0.09161916 -0.23841795 0.28457522 -0.98294145 0.22906664 -0.1990261 0.32618228 0.3184909 -0.04672454 -0.008972533 0.5189814 -0.38995957 0.24966662 0.23972799 0.39399073 -0.15939914 0.20903623 -0.15027814 0.3905539 0.23744595 -0.18462741 0.039834123 0.12226096 -0.09058343 -0.27795708 -0.008343645 0.0060000215 0.2441394 0.54673743 0.066217124 0.8342345
D -0.019893102 0.08587781 -0.11606207 0.042535365 0.03496463 0.016295742 -0.029663451 -0.06927772 -0.100913696 -0.026984837 -0.11812749 0.06726476 0.0066719917 6.723507e-08 -0.040394083 -0.050089262 0.048152857 -0.0004005507 0.038868945 0.105185255 -0.09748036 0.035437915 0.0060901893 -0.032701626 -0.113823436 0.07672274 -0.06518882 -0.015505402 0.03368307 -0.15342377 -0.12079202 -0.025089446 -0.038499314 -0.13477303 -0.06252926 -0.090556 0.071903124 -0.11736584 -0.08210929 -0.0066276197 0.0540189 0.018681832 0.053409323 -0.0030578887 -0.09627791 -7.38106e-05 0.010525974 0.042607278 0.079593554 -0.00804309 -0.004990777 -0.027017446 0.002442423 0.04840043 -0.037187204 -0.07254061 -0.0018895948 -0.0018070466 -0.04804603 -1.2553961e-06 -0.07829778 -0.00048085916 0.00048050683 -0.017941643 0.1663378 0.39197853 0.34768203 -0.14478382 0.05124875 -0.1928215 0.3210342 0.9833511 0.44636497 -0.2043961 0.21207593 0.34063083 0.17425737 -0.18022203 -0.16353463 -0.47952867 -0.15129839 0.024594074 0.30934277 -0.46889803 0.30294722 0.3393794 -0.49055028 -0.31342426 -0.24807863 0.09886987 0.13973588 -0.087412946 -0.056539714 0.2030672 -0.11150647 -0.0647137 -0.41246346 -0.23453872 -0.23629266 0.35079238 -0.44616917 -0.3785259 0.31958437 0.4411585 0.2585966 -0.42628473 0.37109354 0.10965672 -0.29243022 -0.03468654 -0.032196037 0.16239765 -0.20605741 0.04750167 -0.22536215 -0.2904302 0.09538643 -0.5916571 0.07838635 0.062053613 0.22941004 -0.40088582 0.26703492 0.08124835 0.25335634 0.23697574 0.31008628 0.70803493
