4 128
H -0.134076 -0.419705 0.176646 -0.0616182 0.297168 -0.121185 -0.312985 0.0533024 0.00337059 0.438817 0.00115171 0.0811308 -0.0136548 -0.169844 -0.242995 0.0912141 0.219729 -0.0861872 0.182598 0.0206566 -0.0385607 0.227831 -0.00912265 0.0527622 -0.144824 0.00272607 -0.273809 0.259973 0.221027 0.0222118 0.0058205 0.0149073 0.177061 0.115336 0.173107 -0.121564 -0.0825241 0.313893 -0.213464 -0.15843 -0.195593 0.0399582 0.240838 0.00434002 0.233933 0.107226 -0.16146 -0.0086191 0.198933 0.0528335 0.299788 -0.262536 0.297002 -0.225374 0.0498159 0.0205441 -0.0338724 0.521919 -0.137278 -0.35038 0.148199 -0.194499 -0.257001 -0.174335 0.201933 -0.0544099 0.140598 0.370698 0.143861 -0.0386236 -0.146431 -0.130503 0.284205 0.1228 -0.120307 -0.138145 -0.0949104 -0.209999 -0.0228779 0.292526 0.194454 -0.206381 -0.349391 0.105994 0.266403 -0.164563 -0.0410742 0.0916939 0.375008 0.122923 0.0542734 -0.220463 0.202331 0.124844 -0.291455 0.2382 -0.192652 0.102267 -0.0273498 -0.0542533 0.0432596 0.0859163 -0.0316086 0.0239483 0.175765 -0.00268205 -0.454541 -0.299736 -0.0665154 -0.0513672 -0.08651 -0.417959 -0.114698 -0.0681587 0.45919 -0.0831338 -0.316509 -0.442784 -0.0153983 -0.341867 0.369663 0.15863 0.173631 0.230949 -0.176598 -0.122295 0.111706 -0.108842
C -0.144143 -0.454393 0.185395 -0.0632439 0.31879 -0.147317 -0.322377 0.0764801 0.0019212 0.450643 0.0172127 0.0811324 -0.0180693 -0.179594 -0.239259 0.0967416 0.220306 -0.084481 0.195258 0.0330159 -0.0405094 0.237833 -0.0127307 0.0468654 -0.148897 -0.00344681 -0.276624 0.280591 0.225781 0.0186096 0.0010351 0.00576927 0.188337 0.119413 0.17472 -0.124536 -0.0773392 0.316599 -0.229447 -0.165665 -0.192888 0.050317 0.256139 0.0080559 0.249933 0.111852 -0.173387 -0.00878345 0.196997 0.0461614 0.303693 -0.261291 0.301143 -0.225832 0.0544055 0.019939 -0.0319799 0.537387 -0.13891 -0.363608 0.158716 -0.199643 -0.265897 -0.177838 0.201094 -0.0684929 0.150726 0.379292 0.14609 -0.0381982 -0.141169 -0.136356 0.27738 0.115904 -0.119287 -0.150582 -0.0941445 -0.208471 -0.0243734 0.304837 0.208532 -0.196008 -0.36657 0.111787 0.272501 -0.170841 -0.0438265 0.0831232 0.391313 0.122149 0.0478641 -0.23408 0.216349 0.114507 -0.303185 0.253731 -0.193594 0.121744 -0.0206243 -0.0406044 0.0398726 0.0944864 -0.0165714 0.0227373 0.190746 0.00341795 -0.464716 -0.316285 -0.069156 -0.0717535 -0.08981 -0.439729 -0.118032 -0.0791038 0.466821 -0.0835521 -0.313551 -0.45649 -0.0231591 -0.349198 0.375066 0.165025 0.173535 0.237737 -0.194832 -0.124644 0.115169 -0.117515
B 0.0757265 0.29968 -0.023447 -0.0669888 -0.129369 0.486347 -0.0967766 -0.454726 0.20048 0.106519 -0.408323 0.108311 0.138654 0.138244 -0.389136 0.0272165 0.0951379 -0.0060543 -0.0391361 -0.284894 0.154712 -0.0974239 0.0153161 0.24002 0.0875131 0.137743 -0.119273 -0.33457 0.150314 -0.0107114 0.15526 0.145259 -0.125177 0.0699328 0.0156553 -0.018538 -0.219843 0.186209 0.295146 -0.0204969 -0.199663 -0.332988 -0.181701 -0.0493742 -0.320709 -0.0549692 0.276845 -0.0437065 0.0711824 0.304849 0.150996 -0.211755 0.081569 -0.275446 -0.07853 0.0203207 -0.24164 0.133337 -0.153854 0.026741 -0.12015 0.0202091 -0.130862 -0.092889 0.27334 0.445978 -0.163537 0.157239 -0.0566942 -0.194764 -0.366527 0.11823 0.374661 0.265775 -0.0415746 0.0558911 -0.19997 -0.26124 0.182963 -0.0502044 -0.320465 -0.450624 0.172052 -0.0838418 0.0497313 0.160293 -0.0345914 0.381441 -0.213298 0.0095712 0.0548219 0.321443 -0.204983 0.278246 0.0944701 -0.210648 -0.282525 -0.455565 -0.053486 -0.322812 0.121078 -0.0720743 -0.299449 0.0859205 -0.221172 -0.153575 -0.179404 0.239979 0.0832847 0.360153 -0.126767 0.154286 -0.124395 0.142882 0.229221 -0.0116409 -0.422925 -0.0623682 0.0522705 -0.12623 0.1287 0.087567 0.086907 0.0876371 0.346358 0.00414497 -0.150205 0.182995
D 0.0901397 0.318613 -0.0349448 -0.0634614 -0.14209 0.500217 -0.0989913 -0.466714 0.197254 0.09772 -0.421348 0.112081 0.146505 0.141661 -0.39173 0.0167612 0.0936245 -0.00813703 -0.04198 -0.295728 0.151023 -0.10358 0.0171648 0.238964 0.0959339 0.141957 -0.118349 -0.349517 0.145101 -0.0173362 0.151368 0.151532 -0.13319 0.075771 0.0106169 -0.0091779 -0.215255 0.185615 0.304179 -0.0187385 -0.200216 -0.335678 -0.195339 -0.0509048 -0.331746 -0.0588108 0.278387 -0.0407607 0.0613091 0.305232 0.13567 -0.205887 0.0812957 -0.271129 -0.0764935 0.00963676 -0.236001 0.113276 -0.155308 0.0382831 -0.12477 0.0343218 -0.115063 -0.0938214 0.267789 0.447641 -0.171146 0.144838 -0.06774 -0.198422 -0.360897 0.126419 0.367501 0.265138 -0.0440802 0.0709243 -0.203604 -0.251381 0.188347 -0.0518518 -0.325288 -0.447665 0.187562 -0.0934843 0.0391055 0.170058 -0.0311846 0.379851 -0.223946 0.00684646 0.0464272 0.331937 -0.217815 0.276986 0.0993492 -0.218024 -0.280269 -0.464457 -0.0550582 -0.327288 0.125691 -0.0707461 -0.302483 0.0790386 -0.232282 -0.159871 -0.174507 0.249537 0.0880584 0.369094 -0.121369 0.174439 -0.126302 0.144167 0.210892 -0.0190927 -0.415255 -0.0546358 0.0488627 -0.121411 0.122961 0.0867781 0.0802985 0.0804465 0.353623 0.00954159 -0.15797 0.186712
